digraph Tree {
node [shape=box, style="rounded", color="black", fontname=helvetica] ;
edge [fontname=helvetica] ;
0 [label="petal width (cm) <= 1.65\ngini = 0.663\nsamples = 98\nvalue = [44, 50, 56]\nclass = virginica"] ;
1 [label="petal length (cm) <= 2.35\ngini = 0.5\nsamples = 62\nvalue = [44, 46, 0]\nclass = versicolor"] ;
0 -> 1 [labeldistance=2.5, labelangle=45, headlabel="True"] ;
2 [label="gini = 0.0\nsamples = 30\nvalue = [44, 0, 0]\nclass = setosa"] ;
1 -> 2 ;
3 [label="gini = 0.0\nsamples = 32\nvalue = [0, 46, 0]\nclass = versicolor"] ;
1 -> 3 ;
4 [label="sepal length (cm) <= 5.95\ngini = 0.124\nsamples = 36\nvalue = [0, 4, 56]\nclass = virginica"] ;
0 -> 4 [labeldistance=2.5, labelangle=-45, headlabel="False"] ;
5 [label="sepal width (cm) <= 3.1\ngini = 0.337\nsamples = 7\nvalue = [0, 3, 11]\nclass = virginica"] ;
4 -> 5 ;
6 [label="gini = 0.0\nsamples = 6\nvalue = [0, 0, 11]\nclass = virginica"] ;
5 -> 6 ;
7 [label="gini = 0.0\nsamples = 1\nvalue = [0, 3, 0]\nclass = versicolor"] ;
5 -> 7 ;
8 [label="petal length (cm) <= 5.05\ngini = 0.043\nsamples = 29\nvalue = [0, 1, 45]\nclass = virginica"] ;
4 -> 8 ;
9 [label="sepal length (cm) <= 6.5\ngini = 0.375\nsamples = 3\nvalue = [0, 1, 3]\nclass = virginica"] ;
8 -> 9 ;
10 [label="gini = 0.0\nsamples = 2\nvalue = [0, 0, 3]\nclass = virginica"] ;
9 -> 10 ;
11 [label="gini = 0.0\nsamples = 1\nvalue = [0, 1, 0]\nclass = versicolor"] ;
9 -> 11 ;
12 [label="gini = 0.0\nsamples = 26\nvalue = [0, 0, 42]\nclass = virginica"] ;
8 -> 12 ;
}